//Numpy array shape [32, 5]
//Min -0.834192872047
//Max 0.845369398594
//Number of zeros 0

#ifndef W11_H_
#define W11_H_

#ifndef __SYNTHESIS__
model_default_t w11[160];
#else
model_default_t w11[160] = {-0.0000047967, 0.0000127921, -0.0000299398, -0.0000021264, 0.0000286814, 0.2887680829, 0.0898555890, -0.2988817990, 0.0007476270, -0.3411884904, 0.1276905686, -0.1687580049, -0.1738097221, 0.5978665948, -0.1060959026, -0.4569260776, -0.1227004156, 0.0836880580, 0.1441666037, 0.1986762136, -0.0051649534, -0.4294763207, 0.1765567809, 0.6005722880, -0.2615295649, 0.1313015372, 0.0646917149, -0.2267940789, -0.3827453554, 0.3709631562, 0.0863537788, 0.2911197841, -0.6717508435, -0.7495178580, 0.5943172574, -0.0091517456, 0.0728881881, 0.1275621802, -0.6718838811, 0.2788737714, 0.1792874932, -0.1733603925, -0.2658253610, 0.2629042566, 0.0402564406, -0.0660627857, -0.0772527531, 0.2860990167, -0.2953289449, -0.1533217281, 0.4306493402, -0.0038756102, 0.0417768173, -0.3590309322, -0.1874791682, -0.1070601866, -0.1355299652, 0.3731730580, -0.8341928720, 0.0000692108, -0.5321016312, -0.6479058862, -0.1774249971, 0.6626096368, 0.2540318370, 0.1709626317, -0.1497046053, 0.2323911488, -0.0809959993, 0.3786227703, -0.2245666534, -0.2065889239, 0.0983641595, -0.1948327273, 0.4313601851, -0.3641653955, -0.1858487725, -0.1736060232, 0.2659877539, 0.0488395877, -0.3601808846, 0.0911319703, 0.0062219989, 0.2561652064, -0.2247797549, 0.2906396687, 0.2763838768, 0.2895129919, 0.2511682808, -0.2393629551, -0.0776066557, -0.1498536766, -0.4130095541, 0.3940153718, 0.4332124591, 0.2907090485, -0.4608927369, -0.1064253747, -0.0487132445, 0.1364246160, -0.0768532753, 0.2485947013, -0.1462767273, 0.0674493164, -0.4185086191, 0.4800170362, -0.1882781684, -0.1915511340, -0.0029570716, 0.0607456975, -0.1848370284, -0.1472724080, 0.0001655039, -0.0684629381, 0.3464086652, -0.1305500269, 0.0382838920, 0.1006404087, 0.5140813589, -0.6351387501, 0.1445202827, 0.4386917055, -0.5098347068, -0.0020906625, 0.3891841769, -0.1653303504, 0.2997176945, -0.1627875566, -0.4697546661, 0.2298765928, 0.2653081715, -0.3816570044, 0.1985274851, -0.0950461924, -0.3520719111, 0.2293413281, 0.1883071512, 0.1913027465, -0.3549930155, -0.5990801454, 0.2195316255, 0.1653320491, -0.3473331034, -0.4669090509, -0.3624304533, 0.0764781237, 0.3187311590, -0.1233722791, 0.1312199533, -0.0003307938, 0.1338810623, -0.2814259529, -0.0825310275, -0.5566531420, 0.8453693986, 0.1643254906, -0.0289480891, 0.3337135613, -0.4455228150, -0.4330499768};
#endif

#endif
