//Numpy array shape [16, 64]
//Min -1.061863303185
//Max 0.931289613247
//Number of zeros 0

#ifndef W2_H_
#define W2_H_

#ifndef __SYNTHESIS__
model_default_t w2[1024];
#else
model_default_t w2[1024] = {-0.2618236542, -0.0163105335, -0.1956788749, 0.0274666548, 0.0090159681, -0.2312754244, -0.2096595019, 0.0371987037, -0.1786570549, 0.1448798776, 0.3809680641, -0.0953519717, 0.2577174902, -0.4341845512, -0.0741740763, 0.1955782771, -0.1547765583, -0.3818168342, 0.1961311847, 0.0965563878, -0.1665639281, -0.3000268042, -0.0727771372, 0.0022453459, 0.0987235829, 0.2462265939, 0.5811951160, 0.0012711703, 0.1472407579, -0.0351175666, -0.1601429582, 0.4026007056, 0.1150703281, -0.4251753092, -0.2558460832, -0.1549632549, 0.0299029052, -0.3605987728, -0.0004474291, 0.3019285798, -0.2921733856, 0.1346767545, 0.1907142550, -0.1462590843, 0.1185904890, -0.0466333777, 0.1002732888, -0.0309881065, -0.2441790998, 0.1470205337, -0.0305612590, -0.1249236390, 0.1206285283, -0.0012051503, -0.4478457272, -0.0568272658, 0.2059695572, -0.1313131899, -0.0046722456, -0.2654962540, 0.0361507982, -0.0474516340, 0.0599326976, -0.2142898142, 0.2421213686, -0.2304326147, 0.1795745492, 0.3223346770, -0.1712716073, 0.1352583021, 0.3484112918, 0.3351519108, -0.4185289741, 0.0547800511, 0.3561502099, 0.1408779770, -0.4352702200, -0.0022200884, -0.3553408086, -0.0013754879, -0.2968006134, 0.3515943587, 0.2453824133, 0.1277836710, -0.3964195549, -0.1573730558, -0.0340461805, 0.3279274106, 0.2574964166, 0.0168509465, 0.2696447074, -0.2333579659, -0.0464790426, -0.0927349925, -0.1997962445, -0.1184587181, 0.5438583493, 0.2036875784, 0.3592624068, -0.1535398513, 0.2896151841, 0.1289628148, 0.2636075616, -0.1912436038, -0.2276195884, -0.1501398534, 0.1438888907, -0.0660225376, 0.0049956287, 0.3757380843, 0.5789052248, -0.0473369062, 0.1402451247, 0.2215787172, -0.2602976263, -0.1474180967, 0.1703431904, -0.3128037751, -0.3757380843, 0.4114947319, -0.3333417475, 0.1720185578, 0.0909587666, -0.0040969173, 0.1135780811, 0.0287630465, 0.0250725709, -0.1248565018, 0.0276186001, -0.2863985300, -0.2875806689, -0.2707288265, -0.2549935281, 0.2737644017, 0.2513271868, 0.0546003468, -0.3186083436, -0.3093683720, 0.0267201215, 0.2933798730, -0.2024761140, -0.0001413555, -0.3824917972, 0.3428165615, 0.4570306838, -0.2452109903, -0.2076142281, 0.1521852463, -0.0346771367, -0.3483509421, 0.3771934211, 0.2140983939, -0.1919818670, 0.4699202776, 0.0038556012, -0.4432717562, 0.2311400771, 0.1919496357, 0.4316025376, -0.2844021022, 0.5089617968, 0.4671601951, 0.1293652058, 0.1649646908, 0.0305333156, -0.0144021492, -0.1441803128, -0.2531301975, -0.2176893353, -0.0307508092, 0.4256121218, 0.3943429291, 0.2800406814, -0.3296619654, 0.1322952658, 0.0707159489, -0.2509013116, 0.0372938514, 0.3477070928, -0.4057164788, -0.4117357135, 0.2438995987, -0.4329351485, 0.0297129061, -0.0084696291, 0.1271235645, -0.4633863866, 0.2271471322, -0.0500253215, 0.2354313284, 0.5344982147, -0.1946386099, -0.4946201444, -0.0148099465, -0.3522833884, 0.4717267156, -0.5127912760, -0.1106967852, 0.2383584529, -0.3316909671, -0.3067311943, -0.2189332992, -0.3783991337, -0.2450985014, -0.0264162011, -0.0003204407, 0.3607808352, 0.5869845152, 0.2225338817, -0.0130474688, -0.5087198615, 0.5860339403, 0.0000231108, 0.3636659384, -0.4761949778, 0.4561678171, -0.5662569404, 0.1511567235, -0.0440848693, -0.3107836246, -0.4783612490, 0.1914268136, -0.2617776394, -0.3631085455, 0.1630828381, -0.3048408628, 0.1701063067, 0.8115112782, -0.3975252807, -0.4199533463, -0.3704777956, 0.2587814033, 0.6894279122, 0.2078508288, 0.1781107038, 0.2516535223, -0.4952766895, -0.0583632663, 0.0198656097, 0.0324646793, -0.0001755120, -0.1160508245, 0.1953744441, -0.5020013452, -0.5138940215, 0.2835876942, -0.5162370801, 0.2069766819, 0.1191151068, -0.1801597476, -0.3431817591, -0.1646588594, 0.1088263690, -0.2115054131, 0.1648522019, -0.3470142186, -0.0775647089, -0.3837680519, 0.3392421901, -0.2134144604, -0.0598526634, 0.0004242172, 0.4688794315, -0.2880609930, 0.0934948623, -0.3835379183, 0.1579547524, 0.2626739442, 0.0002372030, 0.0594895743, 0.1786538213, 0.6301857829, -0.0253573246, -0.0520522222, 0.4041115344, 0.1706426442, 0.1870202571, -0.4188082516, 0.1906241030, 0.5379967690, -0.0814558417, 0.2668593824, 0.1213179007, 0.0169761516, -0.3218327463, -0.1166970432, -0.0040695495, 0.1098681763, 0.1436111480, -0.1238484159, 0.0859850049, 0.5012733340, -0.2789887786, 0.1405910850, 0.0919030607, 0.0815197453, 0.4500475824, -0.0317462161, 0.1409446597, 0.4054737985, 0.1199716628, 0.0307164248, 0.0123808142, -0.0158052370, -0.2623532116, 0.3629943728, 0.2749445736, -0.3485858440, -0.5558911562, 0.0060748076, -0.1506963372, -0.2716920376, -0.1668836027, -0.1441075355, -0.4263586402, -0.0915238112, 0.3089150488, 0.5440192819, 0.1919342130, -0.0060236696, -0.0000353268, -0.0127708530, -0.3065966070, 0.2388125956, -0.1458798200, 0.1627528518, -0.2927624881, 0.1814025640, -0.2531147599, -0.3005734384, -0.1822618395, 0.3029630482, -0.0670686513, -0.3263143301, 0.2126233727, 0.3024866283, -0.0252097137, 0.2582054436, -0.1897673607, 0.0320892148, -0.4067438841, 0.3239849210, -0.0250042602, 0.0402444415, -0.1850395799, -0.0001302426, -0.0749090016, -0.2246551216, -0.1603015363, -0.2709909678, 0.3261247873, -0.1608837843, 0.1825156808, -0.0048371446, -0.0001762648, 0.2483742386, -0.0603655763, 0.2001272440, -0.1662773639, 0.2662479579, 0.0524853393, 0.1797949821, -0.1122007221, -0.1127559468, -0.3690839708, 0.3745317757, 0.0645014197, 0.3689503074, -0.2781367600, -0.3621361256, 0.3520163894, -0.1060360149, 0.1847365350, 0.0004207782, 0.0192128439, -0.2487464845, -0.1329467148, 0.3153218031, -0.1757745892, 0.0479119681, -0.3097345233, 0.4267832339, 0.1340485513, -0.0002626152, 0.1333489567, 0.3551529944, 0.0003301575, -0.3394937217, -0.2747774720, -0.3221563101, 0.2368535995, -0.2469982505, -0.3374773562, -0.0895672441, -0.3597548008, -0.2101392150, -0.1213662177, -0.0771346018, -0.0034454740, -0.0922145396, -0.1931794286, -0.3126307428, -0.0005713635, 0.0766789839, 0.1184998676, -0.3033923507, 0.2084842324, -0.0065503027, -0.1315340698, 0.1988855898, 0.1795896292, -0.3271929920, 0.2123268843, -0.0092736157, -0.0130328937, 0.1507801265, -0.2799116075, 0.2195465118, -0.0839506611, -0.3697258234, 0.0369889438, 0.0176029261, 0.1191594005, 0.2429802418, 0.3687520027, 0.3881181479, -0.0054031163, -0.0728921369, 0.3303134143, -0.1621973664, 0.0837436169, -0.1843444854, 0.3993272781, 0.3111402094, 0.1184273511, 0.0928885266, -0.0100855241, -0.2725862265, -0.1541065872, 0.2387098670, -0.1596595049, -0.0115840910, 0.1551230550, 0.2051322311, -0.0003142540, 0.0329473205, 0.0416650735, 0.4622548223, -0.1484271139, -0.2884989679, 0.2581652999, -0.0863649994, -0.2590341270, -0.3446299434, -0.0722678602, -0.1692787707, 0.0056913118, -0.0775640681, -0.1644079685, -0.0145857371, 0.0059859678, -0.0969455913, -0.0129487086, -0.3766082525, -0.1270473450, 0.0053793704, -0.1299071908, -0.0672245100, -0.4762576222, 0.0023192114, -0.3623857796, 0.1748431176, 0.2488841265, -0.4077769220, 0.1255859137, 0.1279666126, -0.1091934219, 0.0468737967, 0.2504346371, 0.0274168942, 0.1369391382, 0.0001789028, 0.3675842881, 0.0633779541, -0.2362145782, 0.2969495356, -0.2424702495, 0.0316186547, -0.3245935738, -0.0098638069, -0.1461294591, -0.2142581940, -0.0640004799, -0.2111154199, 0.0636492893, 0.0701807812, 0.3587848246, 0.0442878604, 0.2811803222, -0.1288603693, -0.0187833346, 0.1147652194, -0.0859796256, 0.1811314076, -0.1382191032, 0.0036774790, 0.2446079254, 0.0063680303, 0.0017124568, -0.1472060233, -0.2423114181, -0.1928650737, -0.2879041731, -0.0148377633, 0.2227486074, -0.0237417985, 0.0041464507, 0.2993079126, -0.3315547109, -0.1406001300, -0.3321812451, 0.1757223457, 0.3756845891, -0.0330302082, -0.2522800565, -0.2502058446, 0.2683821917, 0.1408061236, 0.3007268608, -0.0614163280, 0.0348413549, -0.2018424571, -0.4044889808, -0.2970370948, -0.0725763813, -0.2487321794, -0.4277946055, -0.3403577209, 0.0005500584, 0.2330370992, -0.1610238999, -0.0626014248, -0.3983197212, -0.3227018118, 0.2408504188, -0.3745387197, -0.1493017524, -0.0200649612, 0.2878527939, 0.2529115677, -0.0757699236, -0.2939155698, -0.2805234194, 0.2205683589, -0.3688975573, -0.2325158715, -0.0040702159, 0.3979505897, 0.0763812512, -0.2161876708, 0.0120508438, 0.3940261900, 0.1851424426, 0.0043721660, 0.1735447347, 0.1477650255, 0.0878750756, -0.2160615325, 0.0493604653, 0.2469541728, -0.1090131849, -0.0937346667, 0.1596527845, -0.0500316322, 0.2279713154, -0.1469877362, 0.0733603835, 0.4543924332, -0.0028506296, -0.0530097932, -0.2897818387, 0.3320555687, 0.0005554460, 0.3868467510, -0.1533524394, 0.3383057714, -0.3544372916, 0.3949713707, 0.3825275004, -0.2171632499, -0.0002605504, 0.2398739457, -0.3568498194, 0.0725148320, -0.1326609254, 0.3126162589, -0.4282458723, -0.2467243820, -0.0089303683, -0.3575368226, -0.1012799293, -0.2133661658, -0.0034671954, -0.2188979983, 0.3572806716, 0.1088896915, 0.2580388188, 0.1974525899, -0.3424590528, -0.0057504750, 0.1650627702, 0.2014427781, -0.1409233510, -0.2052486390, -0.1722829044, -0.2237627059, -0.3205236197, 0.2611514926, 0.1194930524, 0.0000291982, 0.3222268820, 0.3006779850, -0.4366867244, -0.2856609225, -0.0431135371, -0.2428610474, 0.0001251865, 0.0000232811, 0.2747866511, -0.0028913270, 0.1469950825, 0.1447277963, 0.1036241427, 0.1482115537, -0.1083343923, 0.1681685299, -0.0050349114, 0.1524282843, -0.2948392630, 0.2197721452, -0.0415454060, -0.0056425044, -0.2421751916, -0.3913295865, -0.4495322108, 0.2677859962, -0.1483940333, -0.0232346803, -0.1681574881, -0.2278931886, -0.0941240266, 0.0004307321, -0.0884083286, -0.0532354414, -0.2162428945, -0.1520134658, -0.3769761026, -0.2004536092, -0.1810065061, -0.2736605108, -0.1954647154, 0.0408714488, 0.3166460991, -0.0781604499, -0.2772115767, 0.3285198808, 0.0324298479, -0.1663261354, 0.0431481563, -0.1048235595, -0.5311694145, 0.3949744403, -0.1026115268, 0.0846070126, -0.3689134419, 0.0064684623, -0.0432353392, -0.3497934937, 0.3858740926, -0.0797488913, 0.1699124575, 0.3469172716, -0.3446682394, -0.3349402547, -0.1233596429, 0.2185814083, 0.3053430021, -0.4480604827, 0.4075419307, -0.2814164460, 0.2690951824, -0.1103280261, 0.0439990647, 0.0540163256, -0.2084565014, 0.0775350109, 0.0587602332, 0.0526651852, 0.2018282861, 0.2692963481, 0.3755639195, -0.1085985154, -0.1480299681, 0.1588452607, -0.3609653711, -0.1329346746, -0.2846338153, -0.5144562125, -0.3293772340, 0.2400911301, 0.0007650302, -0.1184665412, -0.2819438577, 0.1641272306, 0.2337104529, -0.1100914180, -0.2889582515, -0.3596278131, 0.1767826825, -0.2532264292, -0.0185083784, -0.4854908884, 0.2870317101, 0.1559314579, -0.3118191957, 0.2544902563, -0.1161686406, 0.0375645123, 0.1384329349, 0.1284907907, 0.0990524441, 0.1015331224, -0.2536070645, -0.2160452157, -0.0920592323, -0.0074862703, -0.0099761672, -0.1319447607, -0.0364475213, -0.3098946214, 0.1800744683, 0.2660025060, -0.2647859752, -0.5146354437, 0.2975744605, 0.0513279773, -0.1868728995, -0.2254850119, 0.1315095574, -0.4762939513, 0.0566296354, -0.4874644578, 0.0174580757, -0.1096491441, 0.0540765189, -0.2091554254, -0.0111323735, 0.0014890651, -0.0716495812, -0.0218157116, -0.2248174995, 0.0332953520, -0.0058245957, 0.0315262675, -0.0857490003, 0.0200820640, 0.2254624665, -0.0002369214, 0.2664905787, -0.1901634037, -0.2252766639, -0.1995405257, -0.2542775869, -0.0012654505, -0.0415990278, 0.3858644962, 0.2496950626, -0.2710578442, 0.1137137190, 0.2369026542, -0.0487092659, 0.1342524290, -0.0819779560, -0.0621240251, 0.0652839169, 0.0003460539, 0.1520932615, 0.0019486555, 0.3213895857, -0.2868237197, 0.1936732382, 0.1125653163, 0.0738027617, -0.1174801886, 0.3451848030, -0.2920098007, 0.3522830307, 0.1057130992, -0.3244524300, -0.0843758434, 0.0156592838, 0.1619986296, 0.1115140617, -0.0999810025, 0.4596371353, -0.2636845708, 0.0065979785, -0.0798105523, -0.0012046512, -0.1123682708, -0.1557798684, 0.2276299596, -0.1998219043, 0.1393165886, 0.0188498367, -0.0300908480, -0.0574862026, 0.1459627301, 0.0008334384, 0.1532936692, -0.2491943091, 0.2579124272, 0.2744627595, 0.1609396785, -0.3996767104, -0.0875750631, -0.2424627393, 0.3018917739, 0.0464160405, -0.4391254187, 0.2409552783, -0.1002957225, 0.2140708268, -0.3407467008, 0.0506356843, -0.1387343705, -0.3449012041, 0.1274278015, -0.0336365625, -0.2011934668, -0.1892563701, 0.0725722313, 0.0033039788, 0.0086472640, 0.0109648956, -0.2379819155, -0.2468761504, -0.1924353689, -0.0027383447, -0.0450645275, -0.2529175878, -0.0949432999, 0.0107239531, -0.2675593197, -0.0292999391, -0.1304043531, -0.1552547067, -0.2554105818, 0.2801012099, 0.1523506492, -0.3064267635, -0.2152274996, 0.1923013330, 0.0535647832, -0.0458360985, -0.4252521694, 0.1578581035, -0.0556107014, -0.3664306700, 0.3036105633, -0.2980040610, -0.0272639077, -0.2345830053, -0.0204762910, 0.0156523231, 0.3490410745, -0.4510354102, -0.0449637249, 0.0451091453, -0.0764788985, -0.0276255403, -0.1494732946, 0.0801430345, -0.1439805627, -0.1253889203, 0.0001658025, -0.0897574425, -0.0209435765, -0.2005714923, 0.1062525213, 0.1813083738, 0.1563498527, 0.0007150961, 0.0635203049, -0.2550791502, 0.1698032171, -0.7306421399, 0.5369459391, 0.5211440325, 0.0562276281, 0.4498256445, 0.4466572106, 0.2285480648, 0.1829831451, -0.8118224740, -0.2273008376, -0.6392247081, -0.0085787661, -0.2225913256, -0.0888277739, -0.3667257726, -0.0694636628, -0.6394532919, -0.0858527273, -0.4129422009, -0.0002059860, 0.2787822485, 0.4860953689, 0.3151178360, 0.9312896132, -0.1502972245, 0.3519353271, -0.2037741840, -0.0244456157, -0.6475827098, 0.8740326762, 0.1477989256, 0.0449370816, -0.6178408861, -0.1923514009, -0.4315622747, -0.4721249640, 0.6773430109, -0.2447755337, -1.0618633032, 0.3712574840, 0.6936442256, -0.1722952127, 0.0479839295, 0.5978921652, -0.6031301022, 0.5217338800, -0.2871969640, -0.6074954271, -0.1449420154, -0.5724106431, 0.1493104100, -0.2398991585, 0.7192557454, -0.3517510593, 0.5149022341, 0.1531324238, -0.7725009322, 0.3656108975, -0.2030327469, 0.4017143548, -0.0150152687, 0.6792786717, 0.7072830200, -0.0230565518, -0.2836483717, 0.1253541261, -0.2821945846, -0.2295756489, -0.1203114465, 0.1168269739, -0.2874536216, 0.1454522759, -0.0476865843, 0.3384112716, 0.4235534072, -0.1603040844, 0.2873722017, -0.3513205647, -0.4433273673, 0.3419928849, 0.3110904694, 0.0682530403, -0.2201383263, 0.0181314424, -0.3413887322, -0.2765942514, -0.4119360745, 0.0880268067, -0.4783669114, -0.0357474424, 0.0000498242, -0.2562679052, -0.0158349052, 0.2370410860, -0.4292811155, -0.3085017204, -0.3146668971, 0.3142471015, -0.0927778035, -0.0748719648, -0.0030102800, 0.2147199064, -0.3397210538, 0.2882760465, -0.1023385674, -0.5473005772, 0.2636308074, 0.2196941674, 0.3296229541, 0.1341857016, 0.0104874959, 0.0614878759, -0.3285712600, -0.1591712236, -0.0004558162, 0.2715528905, 0.0759608597, 0.4168345928, -0.1065443456, 0.3744975030, 0.3022711873, 0.1287519485, -0.0543464310, -0.0839730054, 0.2052662820, -0.1487883329, -0.0893424675, 0.3236069679};
#endif

#endif
