//Numpy array shape [64, 32]
//Min -0.577692687511
//Max 0.614231586456
//Number of zeros 0

#ifndef W5_H_
#define W5_H_

#ifndef __SYNTHESIS__
model_default_t w5[2048];
#else
model_default_t w5[2048] = {0.0004384629, -0.0418233052, 0.1285378188, -0.1398306638, 0.1557243317, -0.2883729935, 0.0149619263, -0.3333550096, -0.0642336980, 0.1618850231, -0.1864579022, -0.0003034035, 0.1164427102, 0.2191470712, 0.1533455551, -0.0005964657, 0.0316689685, -0.0006311899, -0.0502079539, 0.0952472687, 0.0302009508, 0.0381060652, 0.1444031298, -0.0003839952, -0.0712135583, -0.0337552689, 0.1259179711, 0.0735294372, -0.0001635445, 0.0018234956, 0.2222902477, 0.0139073869, -0.1990123391, -0.1200744063, -0.1092736050, -0.0000883301, -0.1357255429, 0.2339792699, -0.0002527318, -0.0041321446, 0.0000421165, -0.2109808475, 0.0002009053, 0.0215058811, 0.1242794022, -0.0067198011, -0.0329474546, 0.1533707678, 0.0876358375, -0.0049958187, 0.0847274214, 0.0899066478, 0.1144561321, -0.0713825077, 0.2170501351, 0.1570254564, -0.1701952964, 0.1408815086, 0.0256603155, 0.0223230850, -0.2352725565, -0.0041411757, -0.2658932209, -0.0227972250, -0.1125599891, 0.1163943559, 0.1027903855, -0.1152972430, -0.1019623429, 0.0953520313, 0.1404923797, 0.2094309032, -0.0000363530, -0.0140619846, 0.0109007433, 0.0136072235, -0.0347021036, 0.0004589915, -0.0192325525, 0.1901975870, 0.1934990734, 0.1637685150, 0.0476320982, 0.1182663366, 0.0418287665, -0.0721396580, 0.1690768003, 0.0901500657, -0.0306330416, -0.0625450388, -0.0359181315, 0.0936753452, -0.1688879579, 0.1308972389, -0.2056687623, -0.0283561647, -0.0397929586, -0.0000391458, -0.1225994155, 0.0829330981, -0.0468125641, 0.0580969080, 0.1501576155, 0.1265493482, 0.2249290496, 0.0357475616, 0.0013164288, 0.1824081838, 0.1162374765, -0.0775296539, -0.0433384478, 0.2329886854, 0.2072212100, 0.0083972653, -0.1807944626, 0.0874631926, -0.0976070464, 0.1745100170, 0.0971537009, 0.0902525187, -0.1478172988, 0.1162584722, -0.1249764860, 0.1470754743, 0.0102595426, 0.1694572866, 0.0933177769, -0.0764280260, -0.0014403607, 0.1778257638, 0.1955909431, -0.1135878414, 0.0453061461, -0.0320637673, 0.1228072792, -0.1092710048, 0.0218475144, -0.0243725125, -0.0485780053, -0.0078147231, 0.2217239439, -0.1327766776, -0.0198208578, -0.1122797951, 0.1040475592, 0.0976025388, 0.1000329554, 0.2275095880, 0.2324791700, 0.2264729142, 0.0714685321, 0.0341965556, 0.1031092033, 0.0673938468, 0.0224873740, 0.0342344716, -0.0434515774, 0.1223352775, -0.1081545502, 0.0293139070, -0.0371786058, 0.0673812777, 0.0055472022, -0.1446938962, -0.0945772976, -0.0424357317, 0.1470715255, -0.1365732700, 0.0929799601, -0.0212088674, 0.1746118814, 0.1434363276, -0.0285888407, 0.0170592256, -0.0714020655, 0.1188463718, 0.0353396386, 0.0956879854, -0.0329950303, 0.1104192659, -0.1754041165, 0.1307614744, 0.0094695827, 0.0579568446, 0.1151059791, -0.1479319334, 0.0388278700, 0.0022877650, 0.1090856865, 0.0859814286, 0.0839569569, 0.0005923984, -0.0009841677, 0.0201369580, 0.1485870630, -0.0246682949, -0.0884196237, -0.0401003286, -0.0800033808, -0.0029097334, 0.1708126813, 0.0111332498, 0.0740507320, 0.2005755752, -0.0395995528, 0.2086108923, -0.1537263393, -0.0311347693, 0.2938416898, 0.2705051601, -0.1302287877, -0.1808374375, 0.1889129728, -0.0151674673, 0.0746416301, -0.0839889795, 0.0294510182, 0.0362422504, -0.0070893732, 0.0005860963, -0.0812703744, -0.1205008775, -0.0376230441, -0.5075198412, -0.1397375762, -0.0000086719, 0.0000953456, 0.2354268730, 0.1145431399, 0.1835859865, 0.1526363939, 0.0517540649, 0.0295007788, -0.1834902018, -0.1680234224, 0.1493863910, 0.0357125066, -0.0437895432, 0.1886610836, 0.1243471950, 0.1728506535, 0.0709305778, 0.1732241064, 0.2832662165, -0.0004822992, 0.0231258254, 0.1741884500, 0.3024540544, -0.0008381841, 0.1298273206, -0.2859360576, 0.0002296060, -0.0006074194, -0.0502332635, -0.0466880649, 0.1654749215, 0.0609691106, -0.0001117119, 0.2354661524, 0.0011339119, -0.0861190706, -0.0610968955, -0.0375475697, -0.1753631532, -0.0089884009, 0.2758613527, -0.0220509060, -0.1222475320, -0.2466942072, 0.0016406500, 0.2711836696, -0.0645661727, -0.1476690471, -0.0276537761, 0.0730442256, -0.0401702523, -0.0559843518, 0.0439126305, 0.0022735626, 0.2906900346, -0.0090494230, -0.0706872419, 0.1448386759, 0.1433992833, -0.0026631444, 0.1766572446, 0.0540672988, 0.1642306894, 0.0002671934, -0.1194562763, -0.1712514609, 0.1374945492, -0.1227251962, -0.0452388562, -0.1440104693, 0.1079609841, 0.0830406472, -0.2092977464, -0.1439282000, 0.0010769321, 0.0460699238, -0.1542764753, 0.0154508715, 0.0300739184, 0.1579529494, -0.2184614092, 0.0672943294, -0.0049457969, 0.0099343974, 0.0341406576, 0.1751629710, 0.1599101871, -0.1771453768, 0.0001034208, -0.0895923227, 0.0723615140, -0.1485023052, -0.1921420693, 0.2074204683, -0.0194115639, 0.0001064611, 0.0001511928, 0.2340139896, 0.0354074575, 0.0778566822, 0.0590879694, -0.0004307826, -0.2351247966, -0.0060501341, 0.2532881200, -0.1786029041, 0.0497862473, 0.1186414734, 0.2912268937, 0.2965942621, 0.1933403462, -0.0000539550, -0.1375986040, 0.0316242538, -0.0296634156, -0.0713540763, 0.0980353579, 0.0322317295, 0.0654280931, -0.0480685346, -0.2459314317, 0.0002351942, -0.1019657254, 0.0088255964, 0.0912177414, 0.2869761884, 0.1299351007, 0.0009073796, 0.1611345559, 0.1551007330, -0.0001513451, 0.0037233140, 0.1051201448, -0.0680130571, 0.0004261267, 0.0975507945, 0.0000457460, -0.0139583200, 0.1125417948, -0.2365500182, -0.0725727156, 0.0705842823, 0.1475650966, 0.0127300816, 0.2112677693, 0.1531510800, 0.0782439485, 0.0719674081, -0.0543948151, -0.2071585655, -0.0010552678, 0.0461512581, 0.0801217631, -0.0397204198, 0.0852468833, 0.1695763320, -0.0001333235, -0.0000583259, 0.0004045123, -0.1582149863, 0.0005888591, 0.2444867045, 0.1628208905, 0.2261075974, -0.0755791888, 0.0469826087, -0.0025251142, 0.1100411192, 0.0354546793, -0.1173834279, 0.1165474206, -0.0803410336, -0.0023240154, 0.2721950114, 0.1548597515, -0.1209773347, 0.0005176380, -0.0825325102, 0.1483581364, -0.0141394828, 0.2002029121, 0.2060931027, 0.1168718264, -0.1317188293, -0.1119428799, -0.2459112853, -0.0572014488, -0.0607181229, -0.1848017722, 0.1626645327, 0.0683056787, -0.0126694618, 0.2067374587, 0.1683564484, -0.0929179117, -0.0220422000, 0.0000713520, -0.0872984082, -0.1220059618, -0.0724394768, 0.2474324703, -0.1381453723, 0.0647370517, 0.1637352258, 0.0545132495, -0.0625233352, -0.0987557918, 0.2515051961, -0.0397168510, 0.0226971935, -0.1153350323, 0.2579655945, -0.1305224150, -0.0531749874, 0.1562941819, -0.0140995253, -0.1299671978, -0.0789988413, 0.0291367117, 0.1405285448, 0.1795261353, 0.0315084644, -0.0727119371, 0.2381255627, 0.0512287170, 0.1335989982, 0.0000432391, -0.0348730534, 0.0310979132, -0.1589250416, 0.0145146074, 0.0177512262, 0.1373742521, 0.0483346395, 0.0001577304, -0.2508605719, 0.0559425727, -0.0001193382, -0.0001936714, -0.0135091525, -0.0002628595, -0.0506551713, -0.1088263094, 0.2729011178, -0.0568757616, -0.2038854361, -0.0000188684, -0.0534864552, -0.0469797589, -0.0031255435, 0.0815020949, 0.0017756200, -0.0743018016, 0.2435393780, 0.0691916794, -0.0990121141, 0.1036302075, -0.2445989251, 0.0124482727, 0.2209435105, -0.0273640417, -0.2984524071, 0.2710482776, 0.2453556508, 0.1227390617, 0.0099595720, 0.0691258684, -0.1111000255, 0.1089289114, -0.1307465583, 0.0238435641, 0.0061776494, 0.0338929445, -0.2791912556, -0.2397216111, 0.2321837693, 0.0097680409, -0.2203202695, -0.2054239511, 0.0931812748, 0.3199332058, 0.0133080501, 0.0791853592, 0.2240240723, -0.0092031769, -0.0887867212, -0.2719278634, -0.0493874736, -0.0725642592, -0.1616294086, 0.0023013307, 0.1119884998, -0.0351035930, -0.3839060366, 0.1112811193, 0.0307184104, 0.1741578877, -0.0758426413, 0.0003599572, -0.4677089155, 0.0246666633, 0.0845799446, 0.0000581430, -0.1156212091, -0.1040103137, 0.0030781538, -0.4743193388, 0.2074855119, 0.1781410873, -0.0348678865, -0.2653945386, -0.0925451070, 0.0302164182, -0.0257527977, -0.1265504062, 0.0033128881, 0.0991124213, 0.1827425212, -0.1081192419, 0.1946591437, 0.1606594175, 0.0851065740, 0.1254529208, -0.0004612913, -0.0141088106, 0.0897932276, 0.0489512756, 0.1041489020, -0.0165421553, 0.1028846800, -0.2357493639, -0.0117554395, 0.1078654528, 0.2878799438, 0.2340175360, 0.1405726373, -0.1259348691, 0.0200049002, 0.2130601257, -0.0025943185, 0.0782714263, 0.3083467185, 0.1480335891, -0.0284074638, -0.1161162183, -0.0459379442, -0.0097055752, -0.1288389862, 0.3597104847, 0.0732607618, 0.2070631236, 0.1196287051, -0.0628372654, 0.2843184471, -0.0003798349, 0.2817974985, -0.0028245409, -0.0390692279, -0.2169532925, -0.0176046528, 0.0677744374, 0.1042260677, 0.1098291501, 0.0018417104, 0.0387305021, 0.2051197141, -0.2706209123, 0.0003613377, 0.0420229547, 0.2973923385, -0.0444300212, 0.0275923051, -0.0025646940, -0.0479802489, 0.2270007432, 0.0536313541, -0.1765145808, -0.1025516018, -0.0472120047, -0.0121556763, -0.0025376466, 0.0279587284, 0.2591535747, 0.0000032424, -0.0220983736, -0.0170560386, -0.0005455540, -0.0000128175, 0.0779778510, -0.3292711973, -0.0110019092, -0.0047048358, 0.0002730316, 0.0321370959, -0.0279960465, 0.1688096225, -0.1054772213, 0.0003313624, 0.1105088145, -0.0240820237, 0.0000220675, -0.1948210448, -0.2176300734, -0.0148429200, 0.0249990989, 0.0426848456, -0.0339624286, -0.1019429043, 0.0100252461, 0.0828109533, 0.0276186503, -0.0599555038, -0.0014361161, -0.0000412785, 0.0000147684, -0.0090057207, 0.0467314310, 0.1765146703, 0.0498202033, -0.1267914921, -0.0275025088, 0.1413164735, 0.2119151354, -0.1017201766, -0.0549350195, 0.0897436440, 0.0970489755, -0.1398753077, 0.0001923128, -0.1220889837, 0.0527933873, 0.0002395602, 0.2019281834, 0.1209243461, 0.0802195221, 0.1406152397, 0.1445802003, -0.0139835449, -0.0435413010, 0.1833380759, 0.0936294571, -0.1189276651, 0.2013279796, -0.0789505169, -0.0740525573, 0.0235730857, 0.0499708429, 0.0989715159, 0.0139630577, -0.0998201668, -0.1220842004, 0.0796950534, 0.1688278168, -0.0004356791, -0.0131853744, -0.0824328363, -0.3116692603, -0.0756724477, 0.0006064488, 0.0811573491, -0.1666596085, -0.1017455906, 0.0687027499, -0.0075934622, -0.0251182187, 0.2048918456, -0.0094061596, -0.1304771006, 0.0003976552, -0.0126245786, 0.1590738297, -0.0649282783, 0.0005987152, 0.0260442719, -0.0601206794, -0.0720033348, 0.0327499881, 0.0477237552, -0.1290777326, 0.1159564406, 0.2251093537, 0.1603281349, -0.0491979495, 0.2040606588, -0.0656949803, 0.2118338048, 0.0562233105, -0.0602443926, 0.2305276245, 0.2813618779, 0.2711977065, -0.1981271952, 0.2872178555, 0.0991866216, -0.1772542000, 0.3289803565, 0.2737837434, 0.2898235023, 0.0969816223, 0.2387209088, -0.2273623347, -0.3546982110, 0.0738447309, 0.2786106467, -0.0009970884, -0.2652046978, 0.0099478783, 0.0308290124, -0.2433360964, 0.0170509797, 0.0000356021, -0.1652822644, 0.0563478321, -0.3522865176, -0.0002663664, -0.2424109429, -0.0843787044, -0.0246680826, 0.1710189134, 0.1684737355, -0.4430411160, 0.1553316861, 0.0001522569, -0.0682669654, 0.0830525383, -0.3470959067, 0.1699722260, 0.1152370200, 0.2251721174, -0.2569826841, -0.0731254667, -0.0498887710, 0.0344658494, 0.0340988897, -0.1631888002, -0.0347846523, 0.3342421651, 0.0969982445, -0.1191759929, -0.0130188689, -0.0513656512, -0.2763556242, -0.3334555328, 0.1056297570, -0.1213899925, 0.1918228120, 0.1767103523, 0.0751746222, 0.0108163664, 0.0002153945, 0.0145063270, -0.1722720414, 0.0001519935, -0.0002690072, -0.2651187181, 0.0674665570, 0.1040724739, 0.1563565433, 0.1008855477, -0.0169157311, -0.0001415647, 0.1800542325, 0.3680124283, 0.0002791660, -0.0683784857, -0.1461559683, 0.0002731784, -0.1287123859, 0.0358790979, 0.0579256192, -0.0021492934, 0.0263217241, -0.0267547294, 0.1062817425, 0.0280594621, -0.0000536501, 0.2671736479, 0.1004857346, -0.0822502971, 0.0000265872, -0.2055078894, 0.0001803517, 0.2734743655, 0.0530835092, 0.0248042457, 0.1029457524, 0.3331878483, 0.1061399877, 0.2469515055, 0.0931132957, 0.1888023466, 0.2990256250, 0.2754140198, -0.0309303869, 0.0747936517, 0.2106663883, -0.0902151540, -0.1470445096, -0.1461465508, -0.0332938954, 0.0558541790, 0.0650892183, 0.0330958366, 0.1043984592, -0.0192308147, -0.1400569528, -0.3219273984, 0.1905921251, -0.1408991218, -0.0000155665, 0.1517154574, 0.2383785695, 0.0570842884, 0.0086658318, 0.0975642726, 0.2163950503, 0.0005212034, 0.0000549075, -0.0996168330, 0.1086919904, -0.1355735660, 0.0295531582, -0.1105098501, 0.1082118526, 0.0742149875, 0.0052027595, 0.0471337140, 0.1414597780, -0.0679964721, -0.1458134651, -0.1472979188, -0.0026824556, 0.1441902071, -0.2488220930, 0.1327159554, 0.0001575598, -0.1253658831, -0.0261494908, -0.0128500154, 0.1028406322, -0.1306718141, 0.1154506430, 0.0004124214, -0.0641835332, 0.0284382552, 0.0612109378, -0.1814410985, -0.0506844707, -0.1858598441, -0.1926364303, 0.0006275572, 0.1795503646, -0.0075340676, -0.0484093726, -0.1002798006, 0.0002348010, -0.1856781244, 0.0122371633, 0.2071443945, -0.0490624048, -0.1510999352, 0.0859288648, 0.0849144980, 0.0000579905, -0.0556817353, 0.1115745455, 0.1024266109, -0.0257011671, -0.0198620372, -0.1403032243, 0.0835298225, 0.0662626848, -0.1167372018, -0.0302998684, -0.0009814210, 0.1493777037, 0.0502434596, -0.4413809776, -0.2176394761, 0.1856264323, 0.0581839979, 0.0001623174, -0.0167067610, 0.0871167183, -0.1091045067, 0.0801926702, 0.1878073663, 0.0117934868, -0.1135915816, 0.0285986941, -0.1081594005, 0.1083031371, 0.0281492732, -0.0947246850, 0.1414774060, -0.3252000511, -0.3195510805, 0.0789047107, -0.0645738840, 0.0293634664, -0.1458033919, 0.2510023713, 0.0026997211, -0.0545227639, -0.0826842263, -0.2592216134, -0.0006333431, -0.4846346676, 0.1153828651, -0.2278113365, 0.3312821984, -0.0245873723, -0.5776926875, 0.0321764722, -0.0139716063, -0.0306987092, 0.0403257422, -0.3965474069, 0.1910614520, -0.0415297449, 0.1274920851, 0.1466919035, 0.2238417417, 0.0331191234, -0.0071653547, 0.1376274675, -0.0350287966, -0.1119264811, 0.1818497926, 0.1041761860, -0.1440799534, -0.2113523781, -0.1495261043, -0.3454683125, 0.0003745120, 0.0006852330, 0.1794704646, 0.0901398286, -0.0513373576, -0.0480805151, 0.0267036837, 0.2469751388, -0.1629156917, 0.1637661606, 0.0232582502, 0.3129232526, 0.2701554894, -0.1091902927, 0.2025396675, -0.1590992510, -0.0787629560, 0.1962914765, 0.3454383314, 0.0031902380, 0.0608308204, -0.1567182094, -0.0033949288, -0.0121164620, 0.0239279121, 0.3619532585, 0.0939352289, -0.0534811653, -0.0029749826, 0.0332636200, -0.0546092726, -0.0732657686, 0.0000837656, 0.0044952082, 0.0003016568, 0.0010281266, 0.1934431791, 0.2369405776, 0.1434385777, 0.0008477239, 0.0006620721, -0.0006557206, 0.0982121900, 0.0003973477, 0.0011494551, -0.0131341768, 0.0414425880, -0.0047533624, 0.0640904978, 0.0652562082, 0.0305270236, 0.0040631918, -0.0836175829, 0.1467258036, -0.0079032648, -0.0167151075, 0.0113305924, 0.0015102437, 0.1081655100, -0.0406781211, 0.0345730074, -0.0029927772, -0.3303906620, -0.0004205706, 0.0495549589, -0.0050480347, -0.0352086239, -0.0963581428, 0.0001441907, 0.1719128639, -0.0149244005, -0.0036220725, 0.0125605892, 0.0753537491, 0.0426922180, 0.0354230143, -0.1201311648, -0.1230779886, 0.0508370176, 0.0086752037, 0.3060606122, 0.1219595075, 0.0395637713, -0.1902045161, -0.0999883115, -0.0019104064, 0.1622194350, 0.0003322153, -0.3628541827, 0.1034683660, 0.0883879513, -0.1306473911, -0.0785950273, 0.1899552941, -0.0163981263, 0.2001983821, -0.1436829567, 0.2390961349, 0.1227664649, 0.2890930772, 0.1013170704, 0.1826819777, 0.0657741800, 0.0822950602, -0.0443082750, 0.2303355783, 0.2426846325, 0.1076703072, -0.0311904456, -0.2397191525, 0.1975557357, -0.0236020852, 0.0390300751, 0.1270277649, -0.1078378409, 0.2562682629, 0.0643348917, 0.0051787915, 0.1273261756, -0.1299785227, -0.0675447807, 0.1153705567, 0.0647331700, -0.0612398162, -0.0939919204, 0.0191099122, 0.1171025336, 0.0411971621, 0.1236396283, -0.0515764952, 0.0254564807, 0.0015310497, 0.0002473015, 0.0346342437, -0.1038644537, 0.0176919643, 0.0041619218, 0.0816642344, 0.1861567944, -0.1267537177, -0.0731266439, -0.2071874291, 0.0369017869, 0.1852600127, 0.1453837901, -0.0411793850, -0.0878908038, 0.0457153656, 0.0504778884, -0.1400450170, 0.1386997551, -0.0007385685, 0.0223919973, 0.1189904511, 0.0217747968, -0.0888516232, 0.0436359346, 0.1431840509, 0.3055440187, 0.1997971833, -0.0030726341, -0.0005219061, -0.2508181334, -0.3547796607, 0.0169886500, 0.3811057806, 0.0747161061, -0.1972545236, 0.0398429073, -0.0028196888, 0.2853246331, -0.0050988831, 0.1327964664, -0.0000910452, -0.1237964556, 0.1511855274, 0.0053215316, -0.0690566897, 0.0403198935, -0.3113211393, -0.2284440547, -0.1748035997, 0.2927103341, 0.1149601564, -0.2650157809, -0.0876609012, 0.1526919156, 0.1370057166, -0.0028140023, 0.1845727265, 0.0704399869, 0.2000373453, 0.0003570888, 0.0028340560, 0.0906413123, 0.3101841509, 0.0083106803, -0.0047029750, 0.1814126074, 0.3235150576, 0.0679637939, -0.0057258955, -0.1401973963, -0.0058397069, 0.1080581769, 0.1292839795, -0.0458408594, -0.0076682731, -0.0095932074, 0.2653690577, 0.0009597115, 0.2800541818, 0.3862933517, -0.0114199361, -0.0170324482, 0.0158014316, 0.1026109159, 0.0800199732, 0.0939208195, -0.2743374407, 0.1102581322, 0.0750060007, -0.1782989204, -0.0871312693, 0.0836833641, 0.0688354373, 0.0004473752, -0.0731323212, 0.0007040472, 0.0355010927, -0.1337654740, 0.0017214390, 0.1843296438, 0.1267122924, -0.0564534515, -0.0246150121, 0.0938703269, -0.0613397621, 0.2275884748, -0.0255758408, 0.1021379158, 0.0138854040, 0.1791111827, 0.0400017165, -0.1511882097, -0.0679043457, -0.0748571679, -0.0197788551, 0.0918114334, -0.0217531007, -0.1530629992, 0.0817865059, 0.1453718841, -0.1442071497, 0.3036908507, -0.0414672792, 0.0000995053, 0.1510482728, -0.0390600935, 0.0741978288, 0.1018310785, -0.0228882991, -0.3018504381, -0.0875363424, -0.0154349720, -0.0002229942, 0.2379320413, -0.0002109292, 0.0098211486, -0.0893767998, 0.0546205193, 0.2951337397, -0.2162437588, -0.0885082930, -0.1995204687, -0.0485082790, 0.2043912262, 0.0019238609, -0.1315926909, 0.1147086322, -0.0566929206, -0.0042678579, -0.0502695478, 0.1658539772, 0.0190498587, 0.1737539172, 0.1744946688, 0.4535380602, 0.2436833680, 0.0002030611, 0.0169473775, 0.0018350532, -0.1472322792, -0.0259816945, 0.1175136194, -0.2449745387, 0.2703403831, 0.0394975804, -0.2092004418, 0.1299190372, 0.1025190353, 0.2250564992, -0.1664105505, -0.1503833681, -0.0160345417, 0.1651598960, -0.0239631757, -0.1776500940, 0.2118064463, 0.0192451011, 0.1743068546, 0.1221643314, -0.0398734137, 0.0496011898, 0.2324444950, -0.0799233466, 0.0928455219, -0.0658103302, 0.0876154453, -0.1883828044, -0.1001560763, -0.0007084055, 0.2025616318, -0.2984143198, -0.0004938137, -0.0198448226, 0.1251480430, -0.2876437306, 0.2462157458, 0.2561400533, -0.2799241543, -0.1094976515, 0.0002526799, 0.0600107573, 0.0856416300, -0.3222251236, 0.0315580964, -0.0373638496, 0.2125956118, -0.3034068048, 0.0366838351, -0.1141421646, 0.1878625900, -0.0297107603, -0.0138580473, -0.0738221630, 0.2429221123, 0.2858468890, 0.1455728859, -0.1189472824, -0.0043494394, -0.2284913957, -0.5145807266, 0.0625700131, -0.1806470901, 0.1635161936, 0.0597339123, -0.1454143822, 0.0064015505, 0.0620449334, 0.0145866647, -0.1234678775, -0.0906381309, 0.0004401171, -0.0185760558, 0.1045267656, 0.0001181114, 0.0284687970, -0.1414704770, -0.0026252801, -0.0616971217, 0.2056815028, -0.0597123690, 0.0047630793, -0.0052877958, -0.0326954983, 0.0921023116, 0.0281352568, -0.0000380658, 0.1566352844, 0.1000209525, 0.0196119938, -0.0743197724, 0.2784786224, -0.1108686104, -0.0004356493, 0.2791894376, -0.1634050012, 0.0770007521, -0.0191591363, 0.1472546160, -0.0068656541, 0.0426827036, 0.1105732322, -0.1201016158, 0.0321810879, 0.0986280814, 0.1172377020, 0.0942633078, -0.0257894304, 0.0005238427, -0.0010883290, 0.0925064534, -0.0494229756, -0.2295639515, -0.0003127079, 0.1124581397, 0.0320765004, -0.0060928166, 0.2378806174, 0.0384866707, 0.1047632024, -0.2390685230, -0.1048969477, -0.0500390790, -0.0799354166, -0.0326508395, -0.0005501227, 0.0705426112, -0.1575146466, 0.0046127615, -0.1271442324, 0.2542316616, -0.0874286219, -0.0010392078, 0.2831722498, -0.3662684262, 0.0126696248, 0.1815391779, 0.1307078302, -0.1555739343, -0.2540457547, 0.0581965186, 0.0210878477, -0.0762694106, -0.0169586241, 0.0486062132, -0.0738503709, 0.2598149776, -0.1515228748, -0.2237060666, 0.0455483124, 0.0411041714, 0.1849098206, -0.0776966065, 0.0724188387, -0.1006253213, -0.2221214175, -0.0504265055, -0.0400159806, 0.0004191161, 0.2184180617, -0.0018826664, 0.1760420799, -0.1213089824, 0.0001206690, -0.2256017476, -0.0001256000, 0.3994350731, -0.0220817756, 0.0015414344, 0.0751318857, 0.1724831611, 0.2559991479, 0.0881784931, -0.1662869304, -0.0704641268, 0.1802522987, 0.0039577903, -0.0968421400, -0.0066001159, 0.1627880037, 0.1278521568, 0.1063567996, -0.2275967598, 0.0177831519, -0.2011826932, 0.0073631364, 0.0029068901, 0.1463820338, 0.1361968070, -0.1018208787, -0.0001363776, 0.0007208433, 0.1228650287, -0.0499138162, 0.0964535028, 0.0359484516, 0.0878734142, -0.0243292283, -0.1417540908, -0.0794280246, 0.0266622473, 0.3056865633, -0.0114873908, 0.0358359180, 0.2145773470, 0.0724101290, 0.0525747985, -0.1063883826, 0.3466730714, -0.1257111877, 0.0292583276, 0.1592565030, 0.1463002414, 0.0876450613, 0.1257941723, -0.0846812502, -0.0563185290, -0.2170421928, -0.0841398984, -0.1800636053, 0.0008212007, 0.2840352058, -0.0210543517, -0.0310105495, 0.1097166389, 0.1223179996, -0.0025660645, -0.1766601652, 0.3579691350, -0.0000025296, 0.0627476573, -0.0329250880, -0.0009576126, 0.1300281882, -0.0482815802, 0.1416076124, 0.0870896056, 0.0321045853, -0.1116122976, -0.0185383148, -0.0242208522, -0.0285754800, 0.1827111840, -0.2337425500, -0.0202287901, -0.0278608818, 0.1055879816, -0.0897689685, -0.0961926952, 0.0006893207, -0.0819180310, 0.0186870843, 0.0003083850, -0.0091843689, 0.0968178660, 0.0616853498, -0.0202409029, 0.0642067790, -0.0202917866, -0.1315858215, 0.1320246756, 0.1863785982, 0.1465436369, 0.0905180648, 0.1530582905, -0.1915637702, 0.1611784846, 0.0815107524, 0.1712606996, -0.1457362324, 0.0400869064, 0.0317772776, -0.2823858261, 0.1956384927, 0.0435273759, -0.0058935410, -0.0422740541, 0.0169945639, -0.2450981289, -0.1467933357, -0.1642128974, 0.0876968056, 0.3030886352, 0.0066505582, 0.1876844466, 0.1456930041, 0.1046448648, 0.0176221468, -0.1637635678, 0.1926087439, -0.0067680879, -0.0262015536, 0.0012671652, -0.0000455551, -0.0000672323, -0.1096199304, -0.0905514136, 0.1500133574, 0.2613404095, -0.0300123077, -0.0814461336, -0.0926400349, -0.0001649414, 0.0723059624, 0.2318510860, 0.1959572732, 0.0965867713, -0.0826336965, -0.0008341338, 0.0001481207, -0.0790623575, 0.1809226424, 0.2156376541, -0.0089885090, 0.1764385849, 0.0608621463, -0.0020003326, -0.0000573333, 0.1795497686, 0.1388211548, 0.1865452975, 0.0718764067, -0.1323149949, 0.0573292486, -0.0536824428, 0.0727874115, 0.2039067000, -0.0003063715, -0.0166745298, 0.0233542118, -0.0031190712, 0.2034385651, -0.0002355728, 0.0892219841, -0.0776167139, 0.0341556631, -0.0400167219, -0.0069997120, 0.2412243932, -0.1249899715, -0.0349200219, -0.0860672370, 0.0625879541, -0.0215516090, 0.1009397954, 0.0011252048, 0.1731927842, 0.1761691719, 0.0790050402, -0.0005083040, 0.0885995030, 0.1057531387, 0.1637488455, -0.0897765383, -0.0067728027, -0.0102499649, -0.0154717546, -0.1278099865, -0.0077688037, 0.1545917690, 0.0820438862, -0.0457359068, -0.2463845611, -0.0839857608, 0.1829160452, 0.0515733249, -0.0811989307, 0.0054192431, 0.0658981577, -0.0124089383, 0.0694124401, -0.0309788566, 0.0071482053, 0.0673983842, -0.0911181197, 0.0012430573, -0.1130538359, 0.1648312509, -0.1450762004, -0.2394474000, 0.0310493167, -0.0263630264, -0.0936986580, -0.1040137187, 0.0547078848, -0.0051934449, 0.2071885616, 0.0037061241, -0.2230062038, 0.0494663343, 0.0148845632, -0.0233725924, -0.0298320912, 0.1731438935, 0.0493026860, 0.2615377903, -0.0191890355, -0.0411618464, -0.0195422564, 0.1302475035, 0.2876632810, -0.0689064860, 0.0953388512, 0.2123293579, 0.0487384498, -0.3046792448, -0.3407970369, 0.2418269813, 0.0006363316, 0.0000996182, 0.1346297711, 0.1974219531, 0.0140855564, -0.2274834663, -0.0703400075, -0.1120919287, 0.1961399615, -0.0940976292, 0.6142315865, 0.1795482934, 0.0420315266, 0.0000310074, -0.4586036205, -0.1267877966, -0.2283230424, 0.2247204036, -0.4240700603, -0.0004636666, 0.1164285690, 0.2928453386, 0.0000170396, -0.2867675424, 0.4407180548, -0.0087431213, 0.3063153327, 0.1743545383, 0.2776751220, -0.0795859098, -0.0088559557, -0.0065130657, -0.2228430957, -0.0079526547, -0.4494414628, -0.5363128781, 0.1465480030, -0.1862815768, 0.1028863415, -0.0071577756, 0.2073964179, -0.0350492485, -0.0103430450, -0.0368469581, 0.0392080322, -0.0528912395, -0.0557311773, -0.0458029173, 0.0006033225, -0.1310343146, -0.0370597504, -0.0003559749, 0.1848232150, 0.0932264850, -0.0382003039, -0.1594777256, -0.1909182221, -0.1907508820, -0.0586441308, 0.1216211319, -0.1462125033, 0.0551672429, 0.1055762395, -0.2764317095, 0.0834762305, -0.0003023311, 0.0003749342, 0.0790435672, 0.0157368332, -0.1099273041, 0.0034445310, 0.0003606836, -0.0002551565, -0.3489181101, 0.2184034437, 0.1835549474, 0.1151064113, -0.0231191274, -0.3793272376, 0.0006356337, 0.0000754068, 0.0282439012, 0.1336697638, -0.0636333600, -0.0235614609, -0.1658091247, 0.0001033701, 0.0231402423, 0.2728217840, -0.2795568407, -0.0764194354, 0.2642046809, 0.3578276932, -0.0879770443, -0.0061802552, 0.0001459432, 0.1076737046, -0.1524639875, -0.0660011917, -0.1622637063, 0.0018410452, -0.2276568264, 0.1508081555, 0.0000316012, 0.0040068622, 0.0004489127, 0.0792350098, 0.1398118436, 0.3152617514, 0.0002462955, 0.0418294296, -0.0059180539, -0.0005294778, -0.0065710801, 0.0576887839, 0.0703947246, 0.3090675175, 0.0320707746, -0.0006973674, -0.2247584164, 0.0545597784, -0.1127923280, 0.2349425405, -0.0653816909, -0.0845722780, -0.1377416253, 0.1758806258, 0.0184649862, -0.0535281934, -0.0759127289, 0.0054632998, 0.0460204259, 0.0002526853, -0.0025296309, 0.0082514388, 0.1076005548, 0.0009841282, 0.1453090012, -0.1377261132, -0.0038580492, -0.1969293505, -0.0253736060, 0.2675352395, -0.0577916503, -0.0412990823, -0.1759050936, 0.0019196527, 0.0378505699, 0.1892130375, 0.0548891798, -0.2537531853, -0.1349095255, 0.0907519087, 0.1155540049, -0.0662402660, -0.0171285514, -0.0072045727, 0.1352373958, -0.1009311229, 0.0559944548, 0.1350836307, 0.0038332345, -0.0097770952, 0.1953152120, 0.0112010259, 0.0141807888, 0.0455778018, -0.0039570583, 0.0782895237, -0.1039457321, 0.1677272916, 0.0667265952, -0.0865159333, -0.1046916917, -0.0995438173, 0.0565703735, 0.1092059687, 0.2413045317, -0.0422524624, 0.0151846688, -0.0690379664, 0.1301499903, 0.1373090595, 0.0004132256, -0.0242431425, 0.0368135534, 0.1062910482, 0.1350482553, 0.1019357070, 0.1432293355, -0.0219442155, -0.0105810184, 0.0011055800, -0.0505466126, 0.0578015596, -0.0297468081, 0.0059873350, -0.0230213571, -0.0550790243, 0.1805549711, -0.0283358376, 0.0423332714, 0.1295267791, -0.1256124228, -0.0747780651, -0.1103025004, 0.0760468617, -0.1173125654, -0.0100861117, 0.1713481694, -0.1343107373, 0.0159141291, 0.1846886724, -0.0670935437, -0.3702767789, 0.0574441664, 0.1363879293, -0.1431330144, 0.0606227964, 0.2915418446, 0.2537420392, -0.3492949307, -0.0553272553, -0.0155931357, 0.1268294156, -0.0038389815, -0.1832455099, 0.1110137701, 0.0726331845, -0.1650900245, 0.0049727550, 0.1649277657, 0.0978507474, -0.0261349715, -0.1903557926, -0.0000501423, 0.0016497347, -0.0464935079, 0.0634828210, 0.1374702156, 0.0576949343, 0.1851716340, -0.0419540368, -0.0003653063, -0.0764948577, -0.0352352895, -0.0899266899, 0.0214986410, 0.0842914283, 0.0417427868, -0.0001837897, 0.1316243857, 0.0000383599, 0.0327797979, -0.0046223970, 0.1820898950, 0.2097430527, 0.1595155150, 0.0242687743, -0.0165196080, -0.0000235265, 0.0007650331, 0.0340727493, 0.2098411471, 0.1406534016, 0.0341947787, 0.1878068596, 0.0144057740, 0.2139391750, 0.0678932518, 0.1293593347, -0.0207912941, -0.0004139750, -0.0725537315, 0.1116840318, 0.0000035619, 0.0752095506, 0.1733707488, 0.0056183171, 0.1147488281, -0.0015246628, -0.1662807763, 0.0382510163, 0.1047936305, -0.0944023579, 0.0781796575, 0.0000551007, -0.0714492872, -0.0997015089, -0.1184870526, -0.0886557847, -0.0001044812, 0.1035181209, -0.1246597916, 0.1286541075, -0.2131429613, -0.0635324568, -0.1755407602, 0.0010347320, -0.0002181980, 0.0376396552, 0.1676701605, -0.1676962525, 0.1098666862, 0.1459663212, -0.0996955857, 0.1530688256, -0.4365384281, -0.0195713285, 0.1476782709, 0.3000358939, -0.0185400899, 0.1200474352, 0.1597148925, 0.0485172682, 0.1451361775, -0.0860046148, 0.2178753018, 0.2012920082, 0.1093814522, 0.0007787595, 0.0611880049, -0.1456040144, -0.2052961141, -0.2811055481, -0.2642671168, 0.1827595830, -0.2392607182, -0.0030228503, -0.0031383256, -0.0196996424, -0.0606882535, 0.1009573266, 0.1275713295, -0.3868290484, 0.0728675798, 0.2842891216, 0.0009594593, -0.1542608738, -0.2250094414, -0.1154317334, 0.0305418279, 0.3178906441, 0.1273498237, 0.0480243824, 0.1280655563, -0.1019209251, -0.0555984676, -0.1458205134, 0.2061900347, 0.1419658512, 0.1442989856, 0.0213589352, 0.2185263038, -0.2207273990, -0.2793515027, -0.4354530871, -0.2183941603, 0.1933845878, -0.1531921029, 0.1307390779, -0.1052837595, 0.1213148087, -0.0591079481, 0.1176222190, 0.0658411458, 0.0261612572, -0.0011914868, -0.0476588346, -0.1470806450, 0.0390404835, -0.0794167966, 0.0001435713, -0.2000319958, 0.0163865834, -0.1318262964, 0.0855617821, -0.1946172416, -0.0883031636, 0.1330103874, -0.0230027884, -0.0934020132, -0.0001338941, 0.0888813138, -0.0075170854, -0.1714075506, 0.0204931777, 0.0757436603, -0.0646282211};
#endif

#endif
