//Numpy array shape [32, 32]
//Min -1.006997585297
//Max 0.570130467415
//Number of zeros 0

#ifndef W8_H_
#define W8_H_

#ifndef __SYNTHESIS__
model_default_t w8[1024];
#else
model_default_t w8[1024] = {0.0000031107, -0.0766889453, -0.0003694665, 0.1027200595, -0.0454471074, 0.0886553898, -0.0283768885, -0.3141000569, -0.2540422380, 0.0314629301, -0.1815492064, -0.1090238765, -0.1530849040, 0.0597551055, 0.0002908310, 0.0798998550, 0.2054893970, -0.0132052451, 0.0001009840, -0.0612019524, 0.0068501071, -0.3443484902, -0.0003392741, -0.0000248575, 0.0780454203, 0.4598654211, -0.0769578740, -0.0663948357, -0.2391764969, 0.3229768872, -0.2804531455, -0.0318502821, 0.0000084035, -0.1087355986, -0.1422664970, 0.2022370994, -0.1451204717, -0.2393243611, 0.2069895864, 0.3587662578, -0.0318571702, 0.1928079128, -0.1492530853, 0.2530502379, 0.2129914314, 0.1507651508, -0.1786852479, -0.0232136138, 0.2246395200, -0.2033997327, 0.1017784923, 0.2062938213, -0.0614541024, -0.1351451278, 0.0670134947, 0.2538427711, 0.0297543351, -0.0320541523, 0.1816145927, 0.2627481222, 0.0134686604, -0.2876810730, 0.0881689116, 0.0147736818, 0.0000100052, -0.0662130192, -0.1240297779, 0.2069492638, 0.1310758442, 0.2622606456, -0.0728417262, -0.2585787475, -0.1710029393, -0.0502918288, -0.0871421173, 0.0471062027, 0.1449096501, -0.0934970081, 0.0431391150, 0.3050918877, 0.2640047073, 0.3439587355, 0.1306952834, -0.2189027816, 0.4423952103, 0.0245789979, 0.3261288702, -0.6445931196, 0.0964386389, 0.0229170546, -0.0678496733, -0.0794771910, -0.0616238937, 0.2422190458, 0.3679308593, -0.0277148578, 0.0000097545, -0.1018077657, -0.2460953742, -0.0426221229, -0.1600919962, -0.0095070321, 0.0640410185, 0.0084318360, 0.1936938763, 0.1768754721, 0.2520249784, 0.1666951030, -0.0974208936, -0.1052719876, -0.3695090711, -0.2248652875, 0.2555024028, 0.1731011122, 0.0475104973, -0.0002270763, 0.0009084876, 0.0954945385, -0.0006432065, -0.0019336031, 0.3677121699, 0.0290444940, 0.2325041443, 0.0852765664, 0.0141294925, 0.0001725341, 0.0002496760, 0.1816661358, -0.0000007293, 0.0003071796, -0.0002859187, -0.2548114359, -0.1824924946, 0.0163421836, -0.4274801016, 0.0138796913, 0.1444743425, 0.1982697994, 0.1893969923, 0.1385226399, -0.1519178599, 0.0406849757, -0.2453798950, 0.1642260849, 0.2798992991, 0.1550066173, -0.1938190609, -0.2580438256, 0.1111492217, -0.2068841010, -0.0271279998, 0.0000514708, -0.2402738482, 0.3509870172, 0.2070631832, 0.4009507000, 0.2611356676, 0.0126315290, -0.3072541952, 0.0427609161, 0.0000015587, 0.2852616906, 0.0200821590, -0.1010007784, -0.0000792528, 0.1024763584, -0.1694728732, -0.2432784438, 0.1703779250, 0.1895320565, 0.0625086129, -0.2643215060, -0.4448570609, 0.0051979618, 0.0964271203, -0.2027353793, 0.0909267515, 0.0957717896, -0.2186827660, -0.0017296163, 0.0004650294, 0.3123318553, -0.3870479465, 0.3136594892, -0.0313102975, -0.0003150948, 0.3642516434, 0.4780242443, 0.0154478913, -0.0003193238, -0.0219007414, 0.2809726894, 0.0000438753, 0.1271955371, -0.1708594710, 0.0394905359, 0.0869360566, 0.0005127789, 0.4824542701, -0.0233913437, -0.0005630362, -0.2058553845, 0.1164252013, -0.0170023125, 0.5701304674, -0.0586773343, -0.0000464519, 0.3805957139, -0.1595572829, 0.4230762422, 0.2633649707, 0.1201430187, 0.2450689226, 0.0585838370, 0.1915475726, -0.0612815209, -0.0007067508, -0.1572955102, 0.2663994133, -0.1104876921, 0.1286691129, 0.0000929296, 0.0461911932, -0.2348269224, 0.0000139429, 0.4314514697, 0.0003789111, -0.2117702365, -0.4061909318, 0.0000779031, 0.1511948407, 0.2667188942, 0.1865724623, -0.0001474522, 0.2833196819, -0.1797471642, -0.1729106903, 0.0000800053, -0.1522505432, -0.1171458587, -0.2568264008, -0.0362176225, -0.1369490325, 0.0106527796, -0.1352624744, -0.1297455281, -0.1860029250, 0.2195467055, 0.2786371112, -0.0940218642, -0.1712210625, 0.0998718739, 0.4578572512, -0.0000157201, -0.0082990713, 0.2453874499, -0.0000223181, 0.1479467601, 0.1150806174, -0.0557032488, -0.1729804873, -0.0385236517, -0.1696079671, 0.3162502646, 0.2741224468, 0.0790377185, -0.0447818339, 0.1972511858, -0.2863353789, -0.0003463967, 0.0004517203, -0.3050261736, 0.0891767219, -0.1641726196, 0.0000073196, -0.0746533871, -0.0697378144, -0.2725246549, 0.2063068897, 0.2845816910, -0.0737268627, -0.0574656464, 0.1493499279, 0.3041714728, -0.0836216509, -0.1279460341, 0.0469462685, 0.0005723149, -0.0000022952, -0.2381373048, -0.0942743048, 0.2363055348, 0.1695653945, 0.2105923444, -1.0069975853, -0.3963211477, 0.0073218578, 0.0562912822, -0.1419211775, 0.2024862021, -0.0505348705, 0.1798518300, -0.2899340093, -0.0030099631, 0.3095812201, 0.4370466769, -0.1897540689, 0.0727709159, 0.1277663261, -0.1564049870, -0.4100994468, 0.0000094335, -0.2733517289, 0.0980179757, 0.1441562623, 0.2317292988, -0.0054067401, -0.0001794902, -0.7456845045, 0.3683415353, -0.0000263147, -0.0205986239, 0.2630099952, 0.1888210177, 0.0624748953, -0.2830126882, -0.0152324717, -0.0001558511, 0.0566402599, -0.0179969855, 0.0888177678, -0.0000064243, 0.0002158491, -0.1420998126, 0.2343983054, -0.0000959776, 0.1626284570, 0.0294777267, -0.0000514564, 0.1048152149, -0.0000579303, -0.1288735867, 0.0000619839, -0.0435831025, -0.2970812917, -0.3704276383, -0.0844122991, -0.0003217283, -0.2239593565, -0.0001679099, -0.1366006583, -0.1002227068, -0.0000137476, 0.0625587404, 0.0177014675, 0.2512937486, -0.0568093732, -0.1978753209, 0.0478553437, 0.1477468014, -0.2111503333, 0.0589353181, -0.0471195579, 0.2560255229, 0.2354381830, -0.2691819370, 0.3292049468, -0.0801737905, 0.3594095409, 0.0818668976, -0.2139748186, 0.0858697742, -0.2818302214, -0.1401200593, 0.1215906292, -0.0295287874, 0.1247471943, -0.1501747817, -0.3358196914, -0.1958791912, 0.0990803689, 0.0634499192, 0.0898551196, 0.0495890677, 0.0000123929, 0.4082204103, 0.3300905824, -0.3309717774, 0.0769559890, 0.0213462152, 0.2906767726, -0.3981770277, -0.1649948210, 0.0884991735, 0.3349262774, -0.7481633425, -0.0198256206, 0.0395197459, -0.3154793084, -0.2510877848, 0.0407630801, -0.0029582945, -0.0181137882, 0.0667538717, -0.1733241528, 0.3019080162, -0.0369733796, -0.0489924178, 0.0049243695, 0.0370236486, 0.1563265920, 0.0217577890, 0.3379765153, 0.0443672389, 0.0162859708, 0.1280518770, -0.0000026451, -0.1183327660, -0.0969492719, 0.3116362393, 0.1851873994, -0.0059272223, 0.0395661481, 0.4074467123, -0.3851816058, 0.4153599143, -0.1246157959, 0.0962801501, 0.0596439801, -0.0155736944, 0.0586995706, 0.3214853406, 0.1997678131, 0.0749655217, 0.2643617988, -0.0764162987, 0.0867860094, -0.1900193691, 0.2989400327, -0.3244567811, -0.0284335408, 0.0994444862, -0.0897750556, -0.0003543839, -0.2534910738, -0.0376626328, -0.0992816612, 0.0674621463, 0.0000004512, 0.0447857529, -0.0003633355, -0.2797687352, 0.1823957413, 0.1845185012, -0.7383157015, -0.6765531301, 0.0250085630, 0.0378180929, 0.0393604413, -0.0174515024, -0.2037919909, 0.0550612062, -0.3222772181, 0.0258844420, 0.0923083499, 0.1038558334, -0.1396157891, -0.2503113747, 0.0753448009, 0.1813883632, -0.1927908212, 0.0000231104, -0.2188295275, 0.1543359905, 0.1131177023, 0.2912698686, 0.0945847929, 0.1137629077, -0.6264755130, 0.3116930127, 0.0000273855, 0.1193562001, 0.0980444849, 0.1541574746, -0.2201204300, -0.0484338850, -0.2501334250, 0.0601511784, -0.0001918362, -0.1070140824, 0.1665496975, -0.2009316832, -0.0537215807, 0.0277891438, 0.0173461623, -0.1454051882, -0.1955108047, -0.0219236240, -0.2879066169, 0.3133215606, -0.1936715543, 0.3505343199, 0.0931493714, 0.1600189507, -0.0675208867, 0.2119942904, -0.1194556579, 0.3296207488, 0.2195852101, -0.1499670893, -0.3316742480, 0.1896304786, -0.0000028342, 0.0127976919, 0.2644633055, 0.0964103714, 0.0434743762, -0.0226489436, 0.2507025003, 0.1385787576, -0.1731985956, 0.3113119006, 0.0014955736, -0.1957321912, 0.1047567576, -0.1641569585, 0.2696463466, 0.2038356513, -0.1463801712, 0.0474846549, -0.1711645424, 0.2155486494, 0.0070140255, -0.0000047990, 0.2379085273, 0.1583456993, 0.1015135795, -0.2363632768, -0.0001056349, 0.4134122431, 0.3756761253, 0.1190449595, -0.0603201576, 0.2709167004, 0.0000029104, 0.0020602038, -0.0882539600, 0.0816956982, 0.0606777780, -0.6683188081, 0.0024112174, 0.1939262599, 0.2684205770, 0.1990483850, -0.0515908636, 0.0750108734, -0.0311640240, -0.4605731666, 0.1410805136, -0.1653510332, -0.0617275499, -0.2553883791, 0.1868376136, -0.3401685357, 0.0056959945, -0.0324778147, -0.0022853778, 0.4226351678, -0.1225230023, -0.6474950314, 0.1257197410, -0.1989155710, -0.2666728795, -0.0686911866, 0.2139670402, -0.2147531062, 0.0000081498, -0.1457021683, -0.0534348860, 0.0452130251, 0.0588480234, 0.0464009419, 0.0283365510, 0.0862700120, 0.0423670337, -0.4320442975, -0.0063096345, -0.1102366894, 0.4421451092, 0.0440641418, 0.0681588277, 0.0116553614, 0.0112343160, 0.1632134169, 0.3602230847, 0.1185422018, 0.1463586241, -0.1893959343, 0.0559481718, -0.7154825926, 0.3870425820, 0.1309654862, -0.4779005349, -0.3486024737, -0.1941287816, 0.0534406565, 0.4253249168, -0.4802014232, -0.0000083554, 0.4405663908, 0.0603424162, 0.0159386285, 0.4029128253, 0.3162613809, 0.4666823447, -0.2805979550, 0.0430646911, -0.2504655719, -0.0172214024, -0.2697823942, 0.0057603754, 0.0125047499, -0.0164020266, 0.0591022186, 0.2312582582, 0.1182755306, 0.2618437409, 0.4297894537, 0.2582266033, 0.3452527523, -0.1853358001, -0.1277513057, 0.2849551737, 0.2261668891, 0.1024904624, -0.0219284855, -0.0397899821, 0.0004135739, 0.3567738831, 0.1298410892, 0.0000176483, -0.1344668418, -0.1527381092, 0.1661626846, 0.0963879898, 0.0310180113, 0.2907789350, 0.2179528028, -0.1332825869, 0.2280564010, -0.2028665394, 0.1684022099, -0.0318113677, 0.0027105939, -0.1835978925, 0.0444190018, 0.2398253679, -0.0559869744, 0.2756327093, -0.3663955927, -0.0158555713, -0.0445207022, -0.0148057267, 0.0772660077, -0.0670842975, 0.0759548992, -0.2298146188, 0.2117101252, 0.0583006889, 0.0241912995, -0.1862042248, -0.0004468995, -0.0000097765, 0.2689109743, 0.2178464532, 0.2133378536, -0.1033675820, 0.1666781306, -0.1881942302, -0.0459137484, 0.0843393207, 0.3221102953, 0.0415463820, 0.0183313806, -0.3574379683, 0.2230158001, -0.1203588992, -0.1798144430, -0.0575421415, -0.1478146762, -0.2209417820, 0.0578499287, 0.0002226634, 0.3187420964, -0.2995613813, 0.0341981351, 0.1836916208, -0.1016861200, 0.0380007029, -0.0921674818, 0.2156594992, -0.2172245532, -0.3541750312, 0.1778491735, 0.0000148076, 0.2938109934, 0.0005880331, -0.0482090265, 0.3345569670, 0.0060143066, -0.0621548370, -0.2321011126, 0.0645603091, 0.0477062985, 0.3857802451, -0.0018534295, 0.0558662899, 0.0889012069, 0.0002256182, 0.0002654705, -0.1079695597, 0.1048895791, 0.0040634861, 0.4374715090, -0.3836433291, 0.0898514539, 0.0071473219, 0.0001815908, -0.1454896331, 0.0232605133, 0.2673709691, -0.1467454433, -0.1657520682, -0.0058310032, 0.0676516294, 0.0010826263, 0.0000020270, 0.0944122970, -0.1420444697, -0.0787508488, 0.0000411258, 0.0451642312, 0.0185270235, -0.2063228786, 0.3119184375, -0.3244195580, 0.2608379424, -0.2641160190, -0.0034215644, 0.3366372287, -0.0003106573, 0.1170184761, 0.1163054034, 0.3494039774, 0.4091739953, 0.1181000024, 0.3550502062, 0.2331689894, 0.1270821095, -0.3233712614, 0.0160410739, -0.2310928106, -0.1421445459, -0.2622855604, 0.2603193820, -0.1929485053, -0.0003049414, -0.0598048307, 0.0000482828, -0.0690375715, 0.0001287010, 0.0003118611, 0.0362498984, -0.3655689955, -0.0733126029, 0.3829084635, -0.0193946660, 0.2624451220, 0.0901682228, 0.2714664042, 0.2836292088, -0.1285678297, 0.3424957395, -0.0004014210, 0.3103806376, -0.1148202121, -0.0543444864, 0.0754500926, -0.0002239765, 0.1543224007, 0.0188190117, -0.1644938737, -0.1989175081, -0.3342722058, 0.0018154159, -0.1229763851, -0.1647293568, -0.0004053870, 0.0555201508, 0.3545512557, -0.0000160436, 0.0941889063, 0.3215528429, -0.1762164682, -0.7896848917, 0.0001540094, -0.0582832955, 0.2039272934, 0.1497217715, -0.0383838937, 0.0031181439, -0.1450570226, -0.6267322898, 0.0000270848, 0.1227312982, -0.0452611744, 0.0567205846, -0.3084237278, -0.1151599362, -0.0634977892, -0.3288427293, 0.1817007065, -0.0874646157, 0.2711081803, 0.4028451443, -0.0000555872, 0.1572974175, -0.0181172062, -0.0515496470, 0.0000779357, 0.1849350929, -0.0378248841, -0.0000353818, -0.0672899261, 0.0401702523, 0.5036250949, 0.0286174696, -0.0602743216, -0.0021801607, -0.0670082569, 0.2004943490, -0.1467906237, -0.3630839586, 0.0481018834, -0.0000474217, 0.0951369926, 0.0711041391, 0.1927854866, 0.0360006653, -0.0858761668, 0.1857760400, 0.2127825171, -0.1938358247, 0.0305743627, 0.1357372105, -0.0002541515, -0.1908668131, -0.2307072878, -0.0561966971, -0.4626596570, -0.3644613922, 0.0306694340, -0.0018828309, -0.3458566070, -0.0000009735, 0.2339453399, 0.0960265249, 0.1448330581, 0.0775978044, -0.0615370832, 0.0562152080, -0.0611728542, 0.1973001659, -0.2704912722, -0.2413127273, -0.2257287502, 0.3629152477, -0.1036470458, -0.0007236535, 0.2837888002, 0.2041839957, -0.0723537058, 0.0906216428, -0.2037114650, -0.0793810487, 0.0097262682, -0.0004303444, 0.0007735421, 0.2249097079, 0.2168576717, 0.1931624711, -0.2341208160, -0.1030761674, 0.2249871492, -0.2296569943, -0.2564525008, 0.0000440312, -0.1775867939, 0.2125754207, -0.1456640214, -0.1001912802, -0.0001634218, -0.0747290105, 0.0025859517, -0.1531414837, 0.2605176270, 0.0484942906, 0.2541354597, -0.2907831967, 0.0001576783, -0.1765416563, -0.1433454305, 0.1330603212, 0.0000873010, -0.0608906895, -0.0000000321, -0.0010390232, 0.0572693795, -0.2091241181, 0.2328658551, -0.1391511112, 0.0286378264, -0.2994794250, 0.2965111732, -0.1553033888, -0.0000288768, 0.0440185554, 0.0396101996, 0.0000162027, -0.3138215244, -0.1618975848, 0.2220248431, 0.1340842098, 0.0906621143, -0.2990565002, 0.0236249603, -0.2148904800, 0.0814315006, 0.1289188564, 0.0409035124, -0.1154521480, 0.0789019987, 0.1567196250, 0.3493740261, 0.0183716714, 0.1131660417, -0.0087676430, 0.0076740612, -0.1435366273, -0.0284096487, 0.3029537201, -0.0835234821, -0.2930326760, 0.1110755652, 0.2586945891, -0.1809715927, -0.3145557940, -0.1497263461, 0.2923028171, 0.0330404788, -0.0000158184, -0.2249092609, -0.0246237125, 0.2602049708, -0.0261726025, 0.1017220169, -0.5030035973, -0.5534051657, -0.0054294043, 0.2641476393, -0.1797904521, -0.1374199688, -0.4319832325, 0.2185645401, -0.7075071931, 0.0411170572, 0.1447298825, 0.0340698920, -0.2222180516, 0.2461750954, 0.1329460889, -0.1222950220, 0.1724935770, -0.0000000944, -0.0177127924, 0.4102092683, -0.1612459868, 0.2743597031, 0.1610342115, -0.0592471883, -0.7452512383, -0.1306134909, -0.0000094136, 0.0748210996, -0.0002028977, 0.0220012572, -0.4659441113, 0.0603681467, 0.0987587720, -0.0002581830, 0.1870093495, -0.0007050573, 0.0406541489, 0.0003406955, -0.3750731647, 0.0682899579, 0.0005364842, -0.0079540964, -0.4112397730, 0.0009575335, 0.0200660788, 0.1912559420, 0.0324950181, 0.0960749537, 0.4005352259, -0.0000097454, 0.3438755572, 0.3491360545, 0.0959509611, -0.0921189338, 0.1062404737, 0.0002928253, 0.2242711484, 0.0975117385};
#endif

#endif
